digraph Tree {
node [shape=box] ;
0 [label="X[5] <= 0.0004\ngini = 0.4819\nsamples = 42\nvalue = [25, 17]"] ;
1 [label="X[3] <= 0.2294\ngini = 0.3856\nsamples = 23\nvalue = [6, 17]"] ;
0 -> 1 [labeldistance=2.5, labelangle=45, headlabel="True"] ;
2 [label="X[4] <= 0.1862\ngini = 0.1049\nsamples = 18\nvalue = [1, 17]"] ;
1 -> 2 ;
3 [label="X[4] <= 0.1622\ngini = 0.5\nsamples = 2\nvalue = [1, 1]"] ;
2 -> 3 ;
4 [label="gini = 0.0\nsamples = 1\nvalue = [0, 1]"] ;
3 -> 4 ;
5 [label="gini = 0.0\nsamples = 1\nvalue = [1, 0]"] ;
3 -> 5 ;
6 [label="gini = 0.0\nsamples = 16\nvalue = [0, 16]"] ;
2 -> 6 ;
7 [label="gini = 0.0\nsamples = 5\nvalue = [5, 0]"] ;
1 -> 7 ;
8 [label="gini = 0.0\nsamples = 19\nvalue = [19, 0]"] ;
0 -> 8 [labeldistance=2.5, labelangle=-45, headlabel="False"] ;
}